{
  "inputNodes": 4,
  "hiddenLayers": 1,
  "hiddenNodes": 12,
  "outputNodes": 3,
  "weights": [
    {
      "type": "SimpleMatrix",
      "cols": 4,
      "rows": 12,
      "values": [
        0.782860654049226,
        0.8985508470853225,
        -0.24473778824935002,
        0.4680101535935561,
        -0.6232080835238966,
        0.8543627053113876,
        0.04752795701698702,
        -0.23507203532335547,
        0.31652316060842506,
        0.14316576763241995,
        -0.40210910786125703,
        0.07668649799450657,
        -0.9624986228810535,
        -0.12724097710608093,
        -0.06303341678314828,
        0.6495831612235788,
        0.9863104240186733,
        -0.15916962984173175,
        0.6717377191963501,
        0.032872941922396606,
        -0.2238356081150894,
        0.16511450368151784,
        -0.5330480535155966,
        0.4850337860672514,
        0.26938558596676837,
        -0.10620782387493097,
        -0.5116374060315071,
        -0.13782747848026927,
        -0.29949003380136446,
        -0.4771814583159765,
        0.09832587032363979,
        -0.02505763080014988,
        0.06447204278535382,
        -0.59752947938056,
        -0.7803351887552269,
        0.22053303129605797,
        0.3457045184040124,
        0.7396548534965388,
        0.5058266910610885,
        -0.35872189776406627,
        -0.18239029935966017,
        0.41874505388723293,
        -0.5408022251556147,
        -0.32213090069399963,
        -0.3350451005517496,
        -0.6936078637843061,
        0.12669165200554183,
        0.04199488912605909
      ]
    },
    {
      "type": "SimpleMatrix",
      "cols": 12,
      "rows": 3,
      "values": [
        -0.48623747073737444,
        -0.04378247845130665,
        -0.20388256078236053,
        -0.9025875951832147,
        -0.01722691386995306,
        -0.5576232835631205,
        0.836735381742192,
        -0.618182617664446,
        0.4111166939168171,
        -0.8578260539068597,
        -0.4070489182100139,
        8.769066138489983E-4,
        0.0815117168020831,
        0.6936096075300637,
        0.5286941548375184,
        0.34775063601021705,
        -0.11616055481848435,
        0.9486695143019485,
        0.9769362035881877,
        0.02733414029212703,
        -0.8910629132742734,
        -0.11777226124212355,
        -0.9843941927998544,
        0.6857561713592029,
        -0.5771308359116516,
        0.6288389542157984,
        0.7425964080422944,
        -0.7874978930982963,
        0.41728917799986187,
        -0.44506468295819185,
        0.8640529271955075,
        0.18593343944053436,
        -0.9865702131152269,
        -0.8662685918148553,
        -0.9675423206112927,
        -0.9255080880051305
      ]
    }
  ],
  "biases": [
    {
      "type": "SimpleMatrix",
      "cols": 1,
      "rows": 12,
      "values": [
        0.06960174855438865,
        0.6962903928440954,
        0.5874484063222568,
        -0.5032155660402042,
        0.03214704199432589,
        0.6981774577532743,
        -0.5413337445788873,
        -0.8211551273700065,
        -0.8570708638643348,
        0.025121930285586264,
        -0.010645380117636898,
        0.703815988153771
      ]
    },
    {
      "type": "SimpleMatrix",
      "cols": 1,
      "rows": 3,
      "values": [
        0.8474622055033953,
        -0.057440318347394166,
        -0.2947717368241357
      ]
    }
  ],
  "learningRate": 0.1,
  "activationFunctionKey": "SIGMOID"
}